\data\
ngram 1=23
ngram 2=61
ngram 3=80

\1-grams:
-1.7183831	<unk>	0
0	<s>	-0.18234019
-1.5220884	</s>	0
-1.3873898	M	-0.1100317
-1.2412617	I	-0.06406109
-1.1321173	S	-0.11965312
-1.3873898	T	-0.13752787
-0.91026855	E	-0.17712653
-1.6092386	R	-0.18234019
-1.0449672	|	-0.09846384
-1.5220884	Q	-0.18234019
-1.5220884	U	-0.18234019
-1.0449672	L	-0.11965312
-1.6092386	H	-0.18234019
-1.6092386	A	-0.18234019
-1.6092386	P	-0.18234019
-1.1321173	O	-0.13752787
-1.5220884	F	-0.18234019
-1.2412617	D	-0.12701172
-1.6092386	C	-0.18234019
-1.5220884	N	-0.18234019
-1.5220884	W	-0.18234019
-1.5220884	G	-0.18234019

\2-grams:
-1.1438962	L </s>	0
-0.43204576	<s> M	-0.30103
-1.2554963	| M	-0.30103
-1.0068685	O M	-0.30103
-0.812312	M I	-0.30103
-1.1637084	| I	-0.30103
-0.41957453	U I	-0.30103
-0.67957646	H I	-0.30103
-1.1961784	I S	-0.30103
-0.978873	S S	-0.30103
-1.0596904	E S	-0.30103
-0.9316316	A S	-0.30103
-0.9227725	O S	-0.30103
-1.1076112	S T	-0.30103
-1.4858536	| T	-0.30103
-1.0964018	L T	-0.30103
-0.67836225	M E	-0.30103
-0.8467284	S E	-0.30103
-0.8088488	T E	-0.30103
-0.5982122	R E	-0.30103
-0.85300106	L E	-0.30103
-0.5982122	H E	-0.30103
-0.5982122	P E	-0.30103
-0.37298933	W E	-0.30103
-1.264005	E R	-0.30103
-1.0719594	A R	-0.30103
-0.9378327	S |	-0.30103
-0.5494609	E |	-0.30103
-0.6369916	R |	-0.30103
-0.87204593	O |	-0.30103
-0.3956576	F |	-0.30103
-0.82552207	D |	-0.30103
-1.3296151	| Q	-0.30103
-0.4405634	Q U	-0.30103
-0.8345479	I L	-0.30103
-0.87204593	T L	-0.30103
-1.0155892	E L	-0.30103
-0.81526536	D L	-0.30103
-0.6369916	C L	-0.30103
-0.6369916	G L	-0.30103
-1.0630486	T H	-0.30103
-1.3720301	| H	-0.30103
-1.3818824	| A	-0.30103
-1.1830484	L A	-0.30103
-1.1697448	S P	-0.30103
-1.0719594	A P	-0.30103
-0.91250783	T O	-0.30103
-1.087976	| O	-0.30103
-0.6577623	P O	-0.30103
-0.6577623	C O	-0.30103
-0.6577623	G O	-0.30103
-1.0435032	O F	-0.30103
-0.92782503	I D	-0.30103
-0.9735634	A D	-0.30103
-0.89095443	D D	-0.30103
-0.41957453	N D	-0.30103
-1.3720301	| C	-0.30103
-1.1697448	L C	-0.30103
-1.0539329	A N	-0.30103
-1.3385413	| W	-0.30103
-1.3385413	| G	-0.30103

\3-grams:
-0.54378843	E L </s>
-1.0035232	E | M
-0.26025727	C O M
-0.23880187	<s> M I
-0.23880187	| M I
-0.54622704	R | I
-0.16097406	Q U I
-0.21855573	| H I
-0.55001783	M I S
-0.27422988	| I S
-0.27422988	H I S
-0.25767362	A S S
-0.26473716	S E S
-0.51071024	L A S
-0.25202093	P O S
-0.25202093	G O S
-0.6867803	I S T
-0.53906244	O S T
-0.7375452	S | T
-0.28706852	F | T
-0.5745719	D | T
-0.2675686	I L T
-0.21834551	O M E
-0.24324152	S S E
-0.48459464	S T E
-0.23833795	L T E
-0.2033477	A R E
-0.24401808	T L E
-0.24401808	D L E
-0.2033477	T H E
-0.2033477	S P E
-0.14762574	| W E
-0.27800414	T E R
-0.6797872	| A R
-0.40779188	I S |
-0.2536033	E S |
-0.19307815	M E |
-0.19307815	R E |
-0.19307815	L E |
-0.19307815	H E |
-0.40771863	W E |
-0.21088515	E R |
-0.2463165	T O |
-0.15424861	O F |
-0.24054223	A D |
-0.24054223	N D |
-0.56318957	R | Q
-0.16665927	| Q U
-0.24170516	U I L
-0.4987611	S T L
-0.2610316	P E L
-0.52543837	W E L
-0.23919494	D D L
-0.21088515	| C L
-0.43730327	| G L
-0.42414632	| T H
-1.0331167	E | H
-0.72718406	S | A
-0.7861889	E | A
-0.27343285	C L A
-0.27343285	G L A
-0.5469508	O S P
-0.6797872	| A P
-0.64239687	| T O
-0.94977516	E | O
-0.21470352	A P O
-0.21470352	L C O
-0.44375402	| G O
-0.26341692	| O F
-0.50998557	M I D
-0.51835936	L A D
-0.2485122	I D D
-0.16097406	A N D
-1.0331167	E | C
-0.5469508	E L C
-0.6760728	| A N
-0.28155538	O | W
-0.56394666	D | W
-0.7221663	S | G
-1.0252126	E | G

\end\
