\data\
ngram 1=23
ngram 2=61
ngram 3=80

\1-grams:
-1.7498091	<unk>	0
0	<s>	-0.98527676
-1.552276	</s>	0
-1.3728311	M	-0.11439539
-1.2308131	I	-0.0611518
-1.123969	S	-0.12228108
-1.3728311	T	-0.13684669
-0.90536124	E	-0.17776407
-1.5991571	R	-0.17286226
-1.038289	|	-0.09942166
-1.552276	Q	-0.17286226
-1.552276	U	-0.17286226
-1.038289	L	-0.12228108
-1.5991571	H	-0.17286226
-1.5991571	A	-0.17286226
-1.5991571	P	-0.17286226
-1.123969	O	-0.13684669
-1.552276	F	-0.17286226
-1.2308131	D	-0.12829086
-1.5991571	C	-0.17286226
-1.552276	N	-0.17286226
-1.552276	W	-0.17286226
-1.552276	G	-0.17286226

\2-grams:
-1.1670777	L </s>	0
-0.045306083	<s> M	-1.2863067
-1.2549279	| M	-1.2863067
-1.015034	O M	-1.2863067
-0.77655447	M I	-1.2863067
-1.1634305	| I	-1.2863067
-0.43434882	U I	-1.2863067
-0.6911064	H I	-1.2863067
-1.1851208	I S	-1.462398
-0.98451406	S S	-1.2863067
-1.0634694	E S	-1.2863067
-0.93495315	A S	-1.2863067
-0.89237976	O S	-1.2863067
-1.0740879	S T	-1.2863067
-1.4722527	| T	-1.462398
-1.1029836	L T	-1.2863067
-0.68823445	M E	-1.2863067
-0.851577	S E	-1.2863067
-0.78513336	T E	-1.5873368
-0.6060803	R E	-1.2863067
-0.8351442	L E	-1.5873368
-0.6060803	H E	-1.5873368
-0.6060803	P E	-1.2863067
-0.38523406	W E	-1.2863067
-1.2741032	E R	-1.5873368
-1.0831499	A R	-1.2863067
-0.9156809	S |	-1.2863067
-0.54817015	E |	-1.3532535
-0.64651585	R |	-1.2863067
-0.8778328	O |	-1.2863067
-0.40909752	F |	-1.2863067
-0.79661256	D |	-1.2863067
-1.354672	| Q	-1.2863067
-0.45943445	Q U	-1.2863067
-0.838013	I L	-1.2863067
-0.8778328	T L	-1.2863067
-0.99348414	E L	-1.2863067
-0.82323647	D L	-1.2863067
-0.64651585	C L	-1.2863067
-0.64651585	G L	-1.2863067
-1.0755302	T H	-1.5873368
-1.3776971	| H	-1.2863067
-1.3522127	| A	-1.2863067
-1.146744	L A	-1.2863067
-1.181115	S P	-1.2863067
-1.0831499	A P	-1.2863067
-0.9189315	T O	-1.2863067
-1.0878954	| O	-1.2863067
-0.6682391	P O	-1.2863067
-0.6682391	C O	-1.2863067
-0.6682391	G O	-1.2863067
-1.064844	O F	-1.2863067
-0.9328314	I D	-1.2863067
-0.97820365	A D	-1.2863067
-0.9002114	D D	-1.2863067
-0.43434882	N D	-1.2863067
-1.3776971	| C	-1.2863067
-1.181115	L C	-1.2863067
-1.0731324	A N	-1.2863067
-1.3304673	| W	-1.5873368
-1.3304673	| G	-1.2863067

\3-grams:
-0.32088247	E L </s>
-0.86033183	E | M
-0.020783033	C O M
-0.019120596	<s> M I
-0.019120596	| M I
-0.32085547	R | I
-0.014438037	Q U I
-0.018267566	| H I
-0.32101277	M I S
-0.021521296	| I S
-0.021521296	H I S
-0.02061734	A S S
-0.021023313	S E S
-0.3186266	L A S
-0.020040821	P O S
-0.020040821	G O S
-0.49621013	I S T
-0.32011887	O S T
-0.49779755	S | T
-0.022267517	F | T
-0.32250115	D | T
-0.021200523	I L T
-0.018235926	O M E
-0.01974403	S S E
-0.31639367	S T E
-0.0191974	L T E
-0.017236952	A R E
-0.019616455	T L E
-0.019616455	D L E
-0.008532979	T H E
-0.017236952	S P E
-0.006656437	| W E
-0.010766628	T E R
-0.4943575	| A R
-0.18467969	I S |
-0.020198295	E S |
-0.01641194	M E |
-0.01641194	R E |
-0.008128461	L E |
-0.008128461	H E |
-0.31088895	W E |
-0.008785301	E R |
-0.019938173	T O |
-0.013926935	O F |
-0.01929787	A D |
-0.01929787	N D |
-0.32200667	R | Q
-0.014917726	| Q U
-0.01963907	U I L
-0.3178634	S T L
-0.02066726	P E L
-0.31931236	W E L
-0.019520974	D D L
-0.017751968	| C L
-0.31353286	| G L
-0.18553726	| T H
-0.8622473	E | H
-0.4970397	S | A
-0.55238396	E | A
-0.021378921	C L A
-0.021378921	G L A
-0.3209843	O S P
-0.4943575	| A P
-0.4945137	| T O
-0.8567067	E | O
-0.018009704	A P O
-0.018009704	L C O
-0.31404224	| G O
-0.021029752	| O F
-0.3186	M I D
-0.31914204	L A D
-0.020094689	I D D
-0.014438037	A N D
-0.8622473	E | C
-0.3209843	E L C
-0.49422243	| A N
-0.02195989	O | W
-0.32188728	D | W
-0.4968787	S | G
-0.86157274	E | G

\end\
